digraph Tree {
node [shape=box] ;
0 [label="X[6] <= 0.5\ngini = 0.471\nsamples = 666\nvalue = [413, 253]"] ;
1 [label="X[1] <= 2.5\ngini = 0.398\nsamples = 241\nvalue = [66, 175]"] ;
0 -> 1 [labeldistance=2.5, labelangle=45, headlabel="True"] ;
2 [label="X[2] <= 2.5\ngini = 0.129\nsamples = 130\nvalue = [9, 121]"] ;
1 -> 2 ;
3 [label="X[0] <= 414.5\ngini = 0.5\nsamples = 2\nvalue = [1, 1]"] ;
2 -> 3 ;
4 [label="gini = 0.0\nsamples = 1\nvalue = [1, 0]"] ;
3 -> 4 ;
5 [label="gini = 0.0\nsamples = 1\nvalue = [0, 1]"] ;
3 -> 5 ;
6 [label="X[2] <= 56.0\ngini = 0.117\nsamples = 128\nvalue = [8, 120]"] ;
2 -> 6 ;
7 [label="X[5] <= 29.356\ngini = 0.105\nsamples = 126\nvalue = [7, 119]"] ;
6 -> 7 ;
8 [label="X[5] <= 28.231\ngini = 0.198\nsamples = 54\nvalue = [6, 48]"] ;
7 -> 8 ;
9 [label="X[0] <= 48.0\ngini = 0.171\nsamples = 53\nvalue = [5, 48]"] ;
8 -> 9 ;
10 [label="X[0] <= 29.0\ngini = 0.5\nsamples = 2\nvalue = [1, 1]"] ;
9 -> 10 ;
11 [label="gini = 0.0\nsamples = 1\nvalue = [0, 1]"] ;
10 -> 11 ;
12 [label="gini = 0.0\nsamples = 1\nvalue = [1, 0]"] ;
10 -> 12 ;
13 [label="X[0] <= 373.0\ngini = 0.145\nsamples = 51\nvalue = [4, 47]"] ;
9 -> 13 ;
14 [label="X[0] <= 352.5\ngini = 0.245\nsamples = 21\nvalue = [3, 18]"] ;
13 -> 14 ;
15 [label="X[2] <= 27.5\ngini = 0.18\nsamples = 20\nvalue = [2, 18]"] ;
14 -> 15 ;
16 [label="X[2] <= 25.0\ngini = 0.408\nsamples = 7\nvalue = [2, 5]"] ;
15 -> 16 ;
17 [label="X[5] <= 19.5\ngini = 0.278\nsamples = 6\nvalue = [1, 5]"] ;
16 -> 17 ;
18 [label="X[0] <= 142.5\ngini = 0.444\nsamples = 3\nvalue = [1, 2]"] ;
17 -> 18 ;
19 [label="gini = 0.0\nsamples = 1\nvalue = [0, 1]"] ;
18 -> 19 ;
20 [label="X[0] <= 273.0\ngini = 0.5\nsamples = 2\nvalue = [1, 1]"] ;
18 -> 20 ;
21 [label="gini = 0.0\nsamples = 1\nvalue = [1, 0]"] ;
20 -> 21 ;
22 [label="gini = 0.0\nsamples = 1\nvalue = [0, 1]"] ;
20 -> 22 ;
23 [label="gini = 0.0\nsamples = 3\nvalue = [0, 3]"] ;
17 -> 23 ;
24 [label="gini = 0.0\nsamples = 1\nvalue = [1, 0]"] ;
16 -> 24 ;
25 [label="gini = 0.0\nsamples = 13\nvalue = [0, 13]"] ;
15 -> 25 ;
26 [label="gini = 0.0\nsamples = 1\nvalue = [1, 0]"] ;
14 -> 26 ;
27 [label="X[2] <= 43.0\ngini = 0.064\nsamples = 30\nvalue = [1, 29]"] ;
13 -> 27 ;
28 [label="gini = 0.0\nsamples = 24\nvalue = [0, 24]"] ;
27 -> 28 ;
29 [label="X[5] <= 25.965\ngini = 0.278\nsamples = 6\nvalue = [1, 5]"] ;
27 -> 29 ;
30 [label="gini = 0.0\nsamples = 5\nvalue = [0, 5]"] ;
29 -> 30 ;
31 [label="gini = 0.0\nsamples = 1\nvalue = [1, 0]"] ;
29 -> 31 ;
32 [label="gini = 0.0\nsamples = 1\nvalue = [1, 0]"] ;
8 -> 32 ;
33 [label="X[4] <= 1.5\ngini = 0.027\nsamples = 72\nvalue = [1, 71]"] ;
7 -> 33 ;
34 [label="gini = 0.0\nsamples = 60\nvalue = [0, 60]"] ;
33 -> 34 ;
35 [label="X[2] <= 24.5\ngini = 0.153\nsamples = 12\nvalue = [1, 11]"] ;
33 -> 35 ;
36 [label="gini = 0.0\nsamples = 7\nvalue = [0, 7]"] ;
35 -> 36 ;
37 [label="X[2] <= 28.0\ngini = 0.32\nsamples = 5\nvalue = [1, 4]"] ;
35 -> 37 ;
38 [label="gini = 0.0\nsamples = 1\nvalue = [1, 0]"] ;
37 -> 38 ;
39 [label="gini = 0.0\nsamples = 4\nvalue = [0, 4]"] ;
37 -> 39 ;
40 [label="X[1] <= 1.5\ngini = 0.5\nsamples = 2\nvalue = [1, 1]"] ;
6 -> 40 ;
41 [label="gini = 0.0\nsamples = 1\nvalue = [0, 1]"] ;
40 -> 41 ;
42 [label="gini = 0.0\nsamples = 1\nvalue = [1, 0]"] ;
40 -> 42 ;
43 [label="X[5] <= 20.8\ngini = 0.5\nsamples = 111\nvalue = [57, 54]"] ;
1 -> 43 ;
44 [label="X[2] <= 36.5\ngini = 0.487\nsamples = 86\nvalue = [36, 50]"] ;
43 -> 44 ;
45 [label="X[5] <= 18.629\ngini = 0.472\nsamples = 81\nvalue = [31, 50]"] ;
44 -> 45 ;
46 [label="X[5] <= 17.6\ngini = 0.483\nsamples = 76\nvalue = [31, 45]"] ;
45 -> 46 ;
47 [label="X[0] <= 93.5\ngini = 0.473\nsamples = 73\nvalue = [28, 45]"] ;
46 -> 47 ;
48 [label="X[2] <= 14.5\ngini = 0.142\nsamples = 13\nvalue = [1, 12]"] ;
47 -> 48 ;
49 [label="X[3] <= 0.5\ngini = 0.444\nsamples = 3\nvalue = [1, 2]"] ;
48 -> 49 ;
50 [label="gini = 0.0\nsamples = 1\nvalue = [1, 0]"] ;
49 -> 50 ;
51 [label="gini = 0.0\nsamples = 2\nvalue = [0, 2]"] ;
49 -> 51 ;
52 [label="gini = 0.0\nsamples = 10\nvalue = [0, 10]"] ;
48 -> 52 ;
53 [label="X[5] <= 15.373\ngini = 0.495\nsamples = 60\nvalue = [27, 33]"] ;
47 -> 53 ;
54 [label="X[3] <= 0.5\ngini = 0.5\nsamples = 53\nvalue = [26, 27]"] ;
53 -> 54 ;
55 [label="X[2] <= 29.75\ngini = 0.483\nsamples = 44\nvalue = [18, 26]"] ;
54 -> 55 ;
56 [label="X[5] <= 7.888\ngini = 0.472\nsamples = 42\nvalue = [16, 26]"] ;
55 -> 56 ;
57 [label="X[5] <= 6.987\ngini = 0.403\nsamples = 25\nvalue = [7, 18]"] ;
56 -> 57 ;
58 [label="gini = 0.0\nsamples = 1\nvalue = [1, 0]"] ;
57 -> 58 ;
59 [label="X[4] <= 1.0\ngini = 0.375\nsamples = 24\nvalue = [6, 18]"] ;
57 -> 59 ;
60 [label="X[0] <= 270.0\ngini = 0.34\nsamples = 23\nvalue = [5, 18]"] ;
59 -> 60 ;
61 [label="X[0] <= 222.5\ngini = 0.469\nsamples = 8\nvalue = [3, 5]"] ;
60 -> 61 ;
62 [label="gini = 0.0\nsamples = 5\nvalue = [0, 5]"] ;
61 -> 62 ;
63 [label="gini = 0.0\nsamples = 3\nvalue = [3, 0]"] ;
61 -> 63 ;
64 [label="X[2] <= 21.5\ngini = 0.231\nsamples = 15\nvalue = [2, 13]"] ;
60 -> 64 ;
65 [label="X[5] <= 7.623\ngini = 0.5\nsamples = 4\nvalue = [2, 2]"] ;
64 -> 65 ;
66 [label="gini = 0.0\nsamples = 2\nvalue = [0, 2]"] ;
65 -> 66 ;
67 [label="gini = 0.0\nsamples = 2\nvalue = [2, 0]"] ;
65 -> 67 ;
68 [label="gini = 0.0\nsamples = 11\nvalue = [0, 11]"] ;
64 -> 68 ;
69 [label="gini = 0.0\nsamples = 1\nvalue = [1, 0]"] ;
59 -> 69 ;
70 [label="X[5] <= 11.402\ngini = 0.498\nsamples = 17\nvalue = [9, 8]"] ;
56 -> 70 ;
71 [label="X[2] <= 20.0\ngini = 0.397\nsamples = 11\nvalue = [8, 3]"] ;
70 -> 71 ;
72 [label="X[2] <= 10.0\ngini = 0.444\nsamples = 3\nvalue = [1, 2]"] ;
71 -> 72 ;
73 [label="gini = 0.0\nsamples = 1\nvalue = [1, 0]"] ;
72 -> 73 ;
74 [label="gini = 0.0\nsamples = 2\nvalue = [0, 2]"] ;
72 -> 74 ;
75 [label="X[0] <= 255.5\ngini = 0.219\nsamples = 8\nvalue = [7, 1]"] ;
71 -> 75 ;
76 [label="X[2] <= 27.5\ngini = 0.5\nsamples = 2\nvalue = [1, 1]"] ;
75 -> 76 ;
77 [label="gini = 0.0\nsamples = 1\nvalue = [0, 1]"] ;
76 -> 77 ;
78 [label="gini = 0.0\nsamples = 1\nvalue = [1, 0]"] ;
76 -> 78 ;
79 [label="gini = 0.0\nsamples = 6\nvalue = [6, 0]"] ;
75 -> 79 ;
80 [label="X[5] <= 13.935\ngini = 0.278\nsamples = 6\nvalue = [1, 5]"] ;
70 -> 80 ;
81 [label="gini = 0.0\nsamples = 4\nvalue = [0, 4]"] ;
80 -> 81 ;
82 [label="X[5] <= 14.85\ngini = 0.5\nsamples = 2\nvalue = [1, 1]"] ;
80 -> 82 ;
83 [label="gini = 0.0\nsamples = 1\nvalue = [1, 0]"] ;
82 -> 83 ;
84 [label="gini = 0.0\nsamples = 1\nvalue = [0, 1]"] ;
82 -> 84 ;
85 [label="gini = 0.0\nsamples = 2\nvalue = [2, 0]"] ;
55 -> 85 ;
86 [label="X[0] <= 705.0\ngini = 0.198\nsamples = 9\nvalue = [8, 1]"] ;
54 -> 86 ;
87 [label="gini = 0.0\nsamples = 7\nvalue = [7, 0]"] ;
86 -> 87 ;
88 [label="X[5] <= 14.85\ngini = 0.5\nsamples = 2\nvalue = [1, 1]"] ;
86 -> 88 ;
89 [label="gini = 0.0\nsamples = 1\nvalue = [0, 1]"] ;
88 -> 89 ;
90 [label="gini = 0.0\nsamples = 1\nvalue = [1, 0]"] ;
88 -> 90 ;
91 [label="X[0] <= 615.5\ngini = 0.245\nsamples = 7\nvalue = [1, 6]"] ;
53 -> 91 ;
92 [label="gini = 0.0\nsamples = 6\nvalue = [0, 6]"] ;
91 -> 92 ;
93 [label="gini = 0.0\nsamples = 1\nvalue = [1, 0]"] ;
91 -> 93 ;
94 [label="gini = 0.0\nsamples = 3\nvalue = [3, 0]"] ;
46 -> 94 ;
95 [label="gini = 0.0\nsamples = 5\nvalue = [0, 5]"] ;
45 -> 95 ;
96 [label="gini = 0.0\nsamples = 5\nvalue = [5, 0]"] ;
44 -> 96 ;
97 [label="X[4] <= 0.5\ngini = 0.269\nsamples = 25\nvalue = [21, 4]"] ;
43 -> 97 ;
98 [label="gini = 0.0\nsamples = 2\nvalue = [0, 2]"] ;
97 -> 98 ;
99 [label="X[0] <= 304.5\ngini = 0.159\nsamples = 23\nvalue = [21, 2]"] ;
97 -> 99 ;
100 [label="X[2] <= 6.5\ngini = 0.444\nsamples = 6\nvalue = [4, 2]"] ;
99 -> 100 ;
101 [label="gini = 0.0\nsamples = 1\nvalue = [0, 1]"] ;
100 -> 101 ;
102 [label="X[4] <= 4.5\ngini = 0.32\nsamples = 5\nvalue = [4, 1]"] ;
100 -> 102 ;
103 [label="gini = 0.0\nsamples = 4\nvalue = [4, 0]"] ;
102 -> 103 ;
104 [label="gini = 0.0\nsamples = 1\nvalue = [0, 1]"] ;
102 -> 104 ;
105 [label="gini = 0.0\nsamples = 17\nvalue = [17, 0]"] ;
99 -> 105 ;
106 [label="X[2] <= 13.0\ngini = 0.3\nsamples = 425\nvalue = [347, 78]"] ;
0 -> 106 [labeldistance=2.5, labelangle=-45, headlabel="False"] ;
107 [label="X[3] <= 2.0\ngini = 0.497\nsamples = 24\nvalue = [11, 13]"] ;
106 -> 107 ;
108 [label="gini = 0.0\nsamples = 12\nvalue = [0, 12]"] ;
107 -> 108 ;
109 [label="X[2] <= 3.5\ngini = 0.153\nsamples = 12\nvalue = [11, 1]"] ;
107 -> 109 ;
110 [label="X[5] <= 35.538\ngini = 0.444\nsamples = 3\nvalue = [2, 1]"] ;
109 -> 110 ;
111 [label="gini = 0.0\nsamples = 1\nvalue = [0, 1]"] ;
110 -> 111 ;
112 [label="gini = 0.0\nsamples = 2\nvalue = [2, 0]"] ;
110 -> 112 ;
113 [label="gini = 0.0\nsamples = 9\nvalue = [9, 0]"] ;
109 -> 113 ;
114 [label="X[5] <= 26.269\ngini = 0.272\nsamples = 401\nvalue = [336, 65]"] ;
106 -> 114 ;
115 [label="X[0] <= 581.5\ngini = 0.195\nsamples = 301\nvalue = [268, 33]"] ;
114 -> 115 ;
116 [label="X[0] <= 569.5\ngini = 0.24\nsamples = 186\nvalue = [160, 26]"] ;
115 -> 116 ;
117 [label="X[5] <= 7.763\ngini = 0.222\nsamples = 181\nvalue = [158, 23]"] ;
116 -> 117 ;
118 [label="X[0] <= 543.5\ngini = 0.109\nsamples = 52\nvalue = [49, 3]"] ;
117 -> 118 ;
119 [label="X[5] <= 7.183\ngini = 0.078\nsamples = 49\nvalue = [47, 2]"] ;
118 -> 119 ;
120 [label="X[0] <= 130.0\ngini = 0.208\nsamples = 17\nvalue = [15, 2]"] ;
119 -> 120 ;
121 [label="gini = 0.0\nsamples = 1\nvalue = [0, 1]"] ;
120 -> 121 ;
122 [label="X[0] <= 275.0\ngini = 0.117\nsamples = 16\nvalue = [15, 1]"] ;
120 -> 122 ;
123 [label="X[0] <= 268.0\ngini = 0.278\nsamples = 6\nvalue = [5, 1]"] ;
122 -> 123 ;
124 [label="gini = 0.0\nsamples = 5\nvalue = [5, 0]"] ;
123 -> 124 ;
125 [label="gini = 0.0\nsamples = 1\nvalue = [0, 1]"] ;
123 -> 125 ;
126 [label="gini = 0.0\nsamples = 10\nvalue = [10, 0]"] ;
122 -> 126 ;
127 [label="gini = 0.0\nsamples = 32\nvalue = [32, 0]"] ;
119 -> 127 ;
128 [label="X[0] <= 557.5\ngini = 0.444\nsamples = 3\nvalue = [2, 1]"] ;
118 -> 128 ;
129 [label="gini = 0.0\nsamples = 1\nvalue = [0, 1]"] ;
128 -> 129 ;
130 [label="gini = 0.0\nsamples = 2\nvalue = [2, 0]"] ;
128 -> 130 ;
131 [label="X[5] <= 7.798\ngini = 0.262\nsamples = 129\nvalue = [109, 20]"] ;
117 -> 131 ;
132 [label="X[0] <= 394.0\ngini = 0.469\nsamples = 8\nvalue = [5, 3]"] ;
131 -> 132 ;
133 [label="X[5] <= 7.785\ngini = 0.48\nsamples = 5\nvalue = [2, 3]"] ;
132 -> 133 ;
134 [label="X[3] <= 0.5\ngini = 0.444\nsamples = 3\nvalue = [2, 1]"] ;
133 -> 134 ;
135 [label="gini = 0.0\nsamples = 2\nvalue = [2, 0]"] ;
134 -> 135 ;
136 [label="gini = 0.0\nsamples = 1\nvalue = [0, 1]"] ;
134 -> 136 ;
137 [label="gini = 0.0\nsamples = 2\nvalue = [0, 2]"] ;
133 -> 137 ;
138 [label="gini = 0.0\nsamples = 3\nvalue = [3, 0]"] ;
132 -> 138 ;
139 [label="X[2] <= 19.5\ngini = 0.242\nsamples = 121\nvalue = [104, 17]"] ;
131 -> 139 ;
140 [label="X[0] <= 309.0\ngini = 0.426\nsamples = 13\nvalue = [9, 4]"] ;
139 -> 140 ;
141 [label="X[0] <= 198.5\ngini = 0.5\nsamples = 8\nvalue = [4, 4]"] ;
140 -> 141 ;
142 [label="gini = 0.0\nsamples = 4\nvalue = [4, 0]"] ;
141 -> 142 ;
143 [label="gini = 0.0\nsamples = 4\nvalue = [0, 4]"] ;
141 -> 143 ;
144 [label="gini = 0.0\nsamples = 5\nvalue = [5, 0]"] ;
140 -> 144 ;
145 [label="X[0] <= 26.0\ngini = 0.212\nsamples = 108\nvalue = [95, 13]"] ;
139 -> 145 ;
146 [label="X[5] <= 10.729\ngini = 0.48\nsamples = 5\nvalue = [3, 2]"] ;
145 -> 146 ;
147 [label="gini = 0.0\nsamples = 2\nvalue = [2, 0]"] ;
146 -> 147 ;
148 [label="X[5] <= 19.5\ngini = 0.444\nsamples = 3\nvalue = [1, 2]"] ;
146 -> 148 ;
149 [label="gini = 0.0\nsamples = 2\nvalue = [0, 2]"] ;
148 -> 149 ;
150 [label="gini = 0.0\nsamples = 1\nvalue = [1, 0]"] ;
148 -> 150 ;
151 [label="X[0] <= 541.5\ngini = 0.191\nsamples = 103\nvalue = [92, 11]"] ;
145 -> 151 ;
152 [label="X[1] <= 2.5\ngini = 0.17\nsamples = 96\nvalue = [87, 9]"] ;
151 -> 152 ;
153 [label="gini = 0.0\nsamples = 24\nvalue = [24, 0]"] ;
152 -> 153 ;
154 [label="X[2] <= 43.0\ngini = 0.219\nsamples = 72\nvalue = [63, 9]"] ;
152 -> 154 ;
155 [label="X[5] <= 9.425\ngini = 0.185\nsamples = 68\nvalue = [61, 7]"] ;
154 -> 155 ;
156 [label="X[0] <= 433.0\ngini = 0.083\nsamples = 46\nvalue = [44, 2]"] ;
155 -> 156 ;
157 [label="gini = 0.0\nsamples = 35\nvalue = [35, 0]"] ;
156 -> 157 ;
158 [label="X[0] <= 459.0\ngini = 0.298\nsamples = 11\nvalue = [9, 2]"] ;
156 -> 158 ;
159 [label="X[5] <= 7.973\ngini = 0.444\nsamples = 3\nvalue = [1, 2]"] ;
158 -> 159 ;
160 [label="gini = 0.0\nsamples = 1\nvalue = [0, 1]"] ;
159 -> 160 ;
161 [label="X[5] <= 8.081\ngini = 0.5\nsamples = 2\nvalue = [1, 1]"] ;
159 -> 161 ;
162 [label="gini = 0.0\nsamples = 1\nvalue = [1, 0]"] ;
161 -> 162 ;
163 [label="gini = 0.0\nsamples = 1\nvalue = [0, 1]"] ;
161 -> 163 ;
164 [label="gini = 0.0\nsamples = 8\nvalue = [8, 0]"] ;
158 -> 164 ;
165 [label="X[0] <= 353.0\ngini = 0.351\nsamples = 22\nvalue = [17, 5]"] ;
155 -> 165 ;
166 [label="X[0] <= 270.5\ngini = 0.459\nsamples = 14\nvalue = [9, 5]"] ;
165 -> 166 ;
167 [label="X[3] <= 0.5\ngini = 0.375\nsamples = 12\nvalue = [9, 3]"] ;
166 -> 167 ;
168 [label="X[0] <= 118.0\ngini = 0.5\nsamples = 4\nvalue = [2, 2]"] ;
167 -> 168 ;
169 [label="gini = 0.0\nsamples = 1\nvalue = [0, 1]"] ;
168 -> 169 ;
170 [label="X[5] <= 16.644\ngini = 0.444\nsamples = 3\nvalue = [2, 1]"] ;
168 -> 170 ;
171 [label="gini = 0.0\nsamples = 2\nvalue = [2, 0]"] ;
170 -> 171 ;
172 [label="gini = 0.0\nsamples = 1\nvalue = [0, 1]"] ;
170 -> 172 ;
173 [label="X[5] <= 15.373\ngini = 0.219\nsamples = 8\nvalue = [7, 1]"] ;
167 -> 173 ;
174 [label="X[2] <= 25.5\ngini = 0.5\nsamples = 2\nvalue = [1, 1]"] ;
173 -> 174 ;
175 [label="gini = 0.0\nsamples = 1\nvalue = [0, 1]"] ;
174 -> 175 ;
176 [label="gini = 0.0\nsamples = 1\nvalue = [1, 0]"] ;
174 -> 176 ;
177 [label="gini = 0.0\nsamples = 6\nvalue = [6, 0]"] ;
173 -> 177 ;
178 [label="gini = 0.0\nsamples = 2\nvalue = [0, 2]"] ;
166 -> 178 ;
179 [label="gini = 0.0\nsamples = 8\nvalue = [8, 0]"] ;
165 -> 179 ;
180 [label="X[0] <= 281.0\ngini = 0.5\nsamples = 4\nvalue = [2, 2]"] ;
154 -> 180 ;
181 [label="gini = 0.0\nsamples = 2\nvalue = [2, 0]"] ;
180 -> 181 ;
182 [label="gini = 0.0\nsamples = 2\nvalue = [0, 2]"] ;
180 -> 182 ;
183 [label="X[2] <= 29.0\ngini = 0.408\nsamples = 7\nvalue = [5, 2]"] ;
151 -> 183 ;
184 [label="gini = 0.0\nsamples = 4\nvalue = [4, 0]"] ;
183 -> 184 ;
185 [label="X[2] <= 48.0\ngini = 0.444\nsamples = 3\nvalue = [1, 2]"] ;
183 -> 185 ;
186 [label="gini = 0.0\nsamples = 2\nvalue = [0, 2]"] ;
185 -> 186 ;
187 [label="gini = 0.0\nsamples = 1\nvalue = [1, 0]"] ;
185 -> 187 ;
188 [label="X[2] <= 25.5\ngini = 0.48\nsamples = 5\nvalue = [2, 3]"] ;
116 -> 188 ;
189 [label="gini = 0.0\nsamples = 2\nvalue = [2, 0]"] ;
188 -> 189 ;
190 [label="gini = 0.0\nsamples = 3\nvalue = [0, 3]"] ;
188 -> 190 ;
191 [label="X[2] <= 31.5\ngini = 0.114\nsamples = 115\nvalue = [108, 7]"] ;
115 -> 191 ;
192 [label="X[2] <= 30.75\ngini = 0.176\nsamples = 72\nvalue = [65, 7]"] ;
191 -> 192 ;
193 [label="X[4] <= 0.5\ngini = 0.136\nsamples = 68\nvalue = [63, 5]"] ;
192 -> 193 ;
194 [label="X[5] <= 7.763\ngini = 0.114\nsamples = 66\nvalue = [62, 4]"] ;
193 -> 194 ;
195 [label="X[0] <= 795.5\ngini = 0.278\nsamples = 18\nvalue = [15, 3]"] ;
194 -> 195 ;
196 [label="X[2] <= 22.5\ngini = 0.124\nsamples = 15\nvalue = [14, 1]"] ;
195 -> 196 ;
197 [label="X[2] <= 19.5\ngini = 0.375\nsamples = 4\nvalue = [3, 1]"] ;
196 -> 197 ;
198 [label="gini = 0.0\nsamples = 3\nvalue = [3, 0]"] ;
197 -> 198 ;
199 [label="gini = 0.0\nsamples = 1\nvalue = [0, 1]"] ;
197 -> 199 ;
200 [label="gini = 0.0\nsamples = 11\nvalue = [11, 0]"] ;
196 -> 200 ;
201 [label="X[0] <= 857.0\ngini = 0.444\nsamples = 3\nvalue = [1, 2]"] ;
195 -> 201 ;
202 [label="gini = 0.0\nsamples = 2\nvalue = [0, 2]"] ;
201 -> 202 ;
203 [label="gini = 0.0\nsamples = 1\nvalue = [1, 0]"] ;
201 -> 203 ;
204 [label="X[3] <= 0.5\ngini = 0.041\nsamples = 48\nvalue = [47, 1]"] ;
194 -> 204 ;
205 [label="gini = 0.0\nsamples = 41\nvalue = [41, 0]"] ;
204 -> 205 ;
206 [label="X[2] <= 20.5\ngini = 0.245\nsamples = 7\nvalue = [6, 1]"] ;
204 -> 206 ;
207 [label="gini = 0.0\nsamples = 1\nvalue = [0, 1]"] ;
206 -> 207 ;
208 [label="gini = 0.0\nsamples = 6\nvalue = [6, 0]"] ;
206 -> 208 ;
209 [label="X[2] <= 20.5\ngini = 0.5\nsamples = 2\nvalue = [1, 1]"] ;
193 -> 209 ;
210 [label="gini = 0.0\nsamples = 1\nvalue = [1, 0]"] ;
209 -> 210 ;
211 [label="gini = 0.0\nsamples = 1\nvalue = [0, 1]"] ;
209 -> 211 ;
212 [label="X[0] <= 656.0\ngini = 0.5\nsamples = 4\nvalue = [2, 2]"] ;
192 -> 212 ;
213 [label="gini = 0.0\nsamples = 1\nvalue = [1, 0]"] ;
212 -> 213 ;
214 [label="X[0] <= 775.5\ngini = 0.444\nsamples = 3\nvalue = [1, 2]"] ;
212 -> 214 ;
215 [label="gini = 0.0\nsamples = 2\nvalue = [0, 2]"] ;
214 -> 215 ;
216 [label="gini = 0.0\nsamples = 1\nvalue = [1, 0]"] ;
214 -> 216 ;
217 [label="gini = 0.0\nsamples = 43\nvalue = [43, 0]"] ;
191 -> 217 ;
218 [label="X[0] <= 443.5\ngini = 0.435\nsamples = 100\nvalue = [68, 32]"] ;
114 -> 218 ;
219 [label="X[2] <= 41.0\ngini = 0.227\nsamples = 46\nvalue = [40, 6]"] ;
218 -> 219 ;
220 [label="X[2] <= 22.5\ngini = 0.312\nsamples = 31\nvalue = [25, 6]"] ;
219 -> 220 ;
221 [label="gini = 0.0\nsamples = 8\nvalue = [8, 0]"] ;
220 -> 221 ;
222 [label="X[5] <= 30.285\ngini = 0.386\nsamples = 23\nvalue = [17, 6]"] ;
220 -> 222 ;
223 [label="gini = 0.0\nsamples = 7\nvalue = [7, 0]"] ;
222 -> 223 ;
224 [label="X[4] <= 1.5\ngini = 0.469\nsamples = 16\nvalue = [10, 6]"] ;
222 -> 224 ;
225 [label="X[0] <= 174.0\ngini = 0.5\nsamples = 12\nvalue = [6, 6]"] ;
224 -> 225 ;
226 [label="X[1] <= 2.0\ngini = 0.444\nsamples = 6\nvalue = [4, 2]"] ;
225 -> 226 ;
227 [label="X[2] <= 23.5\ngini = 0.32\nsamples = 5\nvalue = [4, 1]"] ;
226 -> 227 ;
228 [label="gini = 0.0\nsamples = 1\nvalue = [0, 1]"] ;
227 -> 228 ;
229 [label="gini = 0.0\nsamples = 4\nvalue = [4, 0]"] ;
227 -> 229 ;
230 [label="gini = 0.0\nsamples = 1\nvalue = [0, 1]"] ;
226 -> 230 ;
231 [label="X[3] <= 0.5\ngini = 0.444\nsamples = 6\nvalue = [2, 4]"] ;
225 -> 231 ;
232 [label="X[2] <= 39.0\ngini = 0.5\nsamples = 4\nvalue = [2, 2]"] ;
231 -> 232 ;
233 [label="X[5] <= 30.75\ngini = 0.444\nsamples = 3\nvalue = [2, 1]"] ;
232 -> 233 ;
234 [label="gini = 0.0\nsamples = 1\nvalue = [0, 1]"] ;
233 -> 234 ;
235 [label="gini = 0.0\nsamples = 2\nvalue = [2, 0]"] ;
233 -> 235 ;
236 [label="gini = 0.0\nsamples = 1\nvalue = [0, 1]"] ;
232 -> 236 ;
237 [label="gini = 0.0\nsamples = 2\nvalue = [0, 2]"] ;
231 -> 237 ;
238 [label="gini = 0.0\nsamples = 4\nvalue = [4, 0]"] ;
224 -> 238 ;
239 [label="gini = 0.0\nsamples = 15\nvalue = [15, 0]"] ;
219 -> 239 ;
240 [label="X[2] <= 57.0\ngini = 0.499\nsamples = 54\nvalue = [28, 26]"] ;
218 -> 240 ;
241 [label="X[2] <= 47.5\ngini = 0.497\nsamples = 48\nvalue = [22, 26]"] ;
240 -> 241 ;
242 [label="X[5] <= 30.598\ngini = 0.494\nsamples = 38\nvalue = [21, 17]"] ;
241 -> 242 ;
243 [label="X[2] <= 41.5\ngini = 0.426\nsamples = 13\nvalue = [4, 9]"] ;
242 -> 243 ;
244 [label="X[2] <= 31.0\ngini = 0.375\nsamples = 12\nvalue = [3, 9]"] ;
243 -> 244 ;
245 [label="X[2] <= 28.0\ngini = 0.444\nsamples = 3\nvalue = [2, 1]"] ;
244 -> 245 ;
246 [label="gini = 0.0\nsamples = 1\nvalue = [0, 1]"] ;
245 -> 246 ;
247 [label="gini = 0.0\nsamples = 2\nvalue = [2, 0]"] ;
245 -> 247 ;
248 [label="X[0] <= 672.5\ngini = 0.198\nsamples = 9\nvalue = [1, 8]"] ;
244 -> 248 ;
249 [label="gini = 0.0\nsamples = 6\nvalue = [0, 6]"] ;
248 -> 249 ;
250 [label="X[0] <= 726.5\ngini = 0.444\nsamples = 3\nvalue = [1, 2]"] ;
248 -> 250 ;
251 [label="gini = 0.0\nsamples = 1\nvalue = [1, 0]"] ;
250 -> 251 ;
252 [label="gini = 0.0\nsamples = 2\nvalue = [0, 2]"] ;
250 -> 252 ;
253 [label="gini = 0.0\nsamples = 1\nvalue = [1, 0]"] ;
243 -> 253 ;
254 [label="X[5] <= 52.277\ngini = 0.435\nsamples = 25\nvalue = [17, 8]"] ;
242 -> 254 ;
255 [label="gini = 0.0\nsamples = 10\nvalue = [10, 0]"] ;
254 -> 255 ;
256 [label="X[3] <= 1.5\ngini = 0.498\nsamples = 15\nvalue = [7, 8]"] ;
254 -> 256 ;
257 [label="X[5] <= 92.815\ngini = 0.444\nsamples = 12\nvalue = [4, 8]"] ;
256 -> 257 ;
258 [label="X[2] <= 22.0\ngini = 0.245\nsamples = 7\nvalue = [1, 6]"] ;
257 -> 258 ;
259 [label="gini = 0.0\nsamples = 1\nvalue = [1, 0]"] ;
258 -> 259 ;
260 [label="gini = 0.0\nsamples = 6\nvalue = [0, 6]"] ;
258 -> 260 ;
261 [label="X[4] <= 0.5\ngini = 0.48\nsamples = 5\nvalue = [3, 2]"] ;
257 -> 261 ;
262 [label="gini = 0.0\nsamples = 3\nvalue = [3, 0]"] ;
261 -> 262 ;
263 [label="gini = 0.0\nsamples = 2\nvalue = [0, 2]"] ;
261 -> 263 ;
264 [label="gini = 0.0\nsamples = 3\nvalue = [3, 0]"] ;
256 -> 264 ;
265 [label="X[4] <= 0.5\ngini = 0.18\nsamples = 10\nvalue = [1, 9]"] ;
241 -> 265 ;
266 [label="gini = 0.0\nsamples = 9\nvalue = [0, 9]"] ;
265 -> 266 ;
267 [label="gini = 0.0\nsamples = 1\nvalue = [1, 0]"] ;
265 -> 267 ;
268 [label="gini = 0.0\nsamples = 6\nvalue = [6, 0]"] ;
240 -> 268 ;
}
